import Raphael from 'raphael';

// #### Generated By: http://www.cufonfonts.com ####
/*!
 * The following copyright notice may not be removed under any circumstances.
 *
 * Copyright:
 * By Devin Cook (DevinCook.com)
 */
Raphael.registerFont({"w":1600,"face":{"font-family":"Commodore 64 Pixelized","font-weight":400,"font-stretch":"normal","units-per-em":"2048","panose-1":"0 0 0 0 0 0 0 0 0 0","ascent":"1638","descent":"-410","bbox":"0 -1802 1600 200","underline-thickness":"22","underline-position":"-134","unicode-range":"U+0020-U+20AC"},"glyphs":{" ":{},"!":{"d":"600,-1400r400,0r0,1000r-400,0r0,-1000xm600,-200r400,0r0,200r-400,0r0,-200"},"\"":{"d":"1000,-1400r400,0r0,400r-400,0r0,-400xm200,-1400r400,0r0,400r-400,0r0,-400"},"#":{"d":"0,-600r200,0r0,-200r-200,0r0,-200r200,0r0,-400r400,0r0,400r400,0r0,-400r400,0r0,400r200,0r0,200r-200,0r0,200r200,0r0,200r-200,0r0,400r-400,0r0,-400r-400,0r0,400r-400,0r0,-400r-200,0r0,-200xm600,-800r0,200r400,0r0,-200r-400,0"},"$":{"d":"200,-400r800,0r0,-200r-600,0r0,-200r-200,0r0,-200r200,0r0,-200r200,0r0,-200r400,0r0,200r400,0r0,200r-800,0r0,200r600,0r0,200r200,0r0,200r-200,0r0,200r-200,0r0,200r-400,0r0,-196r-400,0r0,-204"},"%":{"d":"200,-400r200,0r0,-200r200,0r0,-200r200,0r0,-200r200,0r0,-200r200,0r0,-200r200,0r0,400r-200,0r0,200r-200,0r0,200r-200,0r0,200r-200,0r0,200r-200,0r0,200r-200,0r0,-400xm200,-1400r400,0r0,400r-400,0r0,-400xm1000,-400r400,0r0,400r-400,0r0,-400"},"&":{"d":"200,-600r200,0r0,-400r-200,0r0,-200r200,0r0,-200r800,0r0,200r200,0r0,200r-200,0r0,200r-200,0r0,200r600,0r0,200r-200,0r0,200r200,0r0,200r-1200,0r0,-200r-200,0r0,-400xm1000,-1200r-400,0r0,200r400,0r0,-200xm600,-600r0,400r400,0r0,-400r-400,0"},"'":{"d":"1400,-1400r0,200r-200,0r0,200r-200,0r0,200r-400,0r0,-200r200,0r0,-200r200,0r0,-200r400,0"},"(":{"d":"800,-400r200,0r0,200r200,0r0,200r-400,0r0,-200r-200,0r0,-200r-200,0r0,-600r200,0r0,-200r200,0r0,-200r400,0r0,200r-200,0r0,200r-200,0r0,600"},")":{"d":"800,-1000r-200,0r0,-200r-200,0r0,-200r400,0r0,200r200,0r0,200r200,0r0,600r-200,0r0,200r-200,0r0,200r-400,0r0,-200r200,0r0,-200r200,0r0,-600"},"*":{"d":"0,-800r400,0r0,-200r-200,0r0,-200r400,0r0,200r400,0r0,-200r400,0r0,200r-200,0r0,200r400,0r0,200r-400,0r0,200r200,0r0,200r-400,0r0,-200r-400,0r0,200r-398,0r0,-200r198,0r0,-200r-400,0r0,-200"},"+":{"d":"200,-800r400,0r0,-400r400,0r0,400r400,0r0,200r-400,0r0,400r-400,0r0,-400r-400,0r0,-200"},",":{"d":"600,-400r400,0r0,400r-200,0r0,200r-400,0r0,-200r200,0r0,-400"},"-":{"d":"200,-800r1200,0r0,200r-1200,0r0,-200"},"\u2010":{"d":"200,-800r1200,0r0,200r-1200,0r0,-200"},".":{"d":"600,-400r400,0r0,400r-400,0r0,-400"},"\/":{"d":"200,-200r200,0r0,-200r200,0r0,-200r200,0r0,-200r200,0r0,-200r200,0r0,-200r400,0r0,200r-200,0r0,200r-200,0r0,200r-200,0r0,200r-200,0r0,200r-200,0r0,200r-400,0r0,-200"},"0":{"d":"200,-1200r200,0r0,-200r800,0r0,200r200,0r0,1000r-200,0r0,200r-800,0r0,-200r-200,0r0,-1000xm600,-600r0,400r400,0r0,-600r-200,0r0,-200r200,0r0,-200r-400,0r0,400r200,0r0,200r-200,0"},"1":{"d":"600,-800r-200,0r0,-200r200,0r0,-400r400,0r0,1200r400,0r0,200r-1200,0r0,-200r400,0r0,-600"},"2":{"d":"1200,-1400r0,200r200,0r0,400r-200,0r0,200r-400,0r0,-200r200,0r0,-400r-400,0r0,200r-400,0r0,-200r200,0r0,-200r800,0xm800,-600r0,200r-200,0r0,200r800,0r0,200r-1200,0r0,-400r200,0r0,-200r400,0"},"3":{"d":"200,-400r400,0r0,200r400,0r0,-400r-400,0r0,-200r400,0r0,-400r-400,0r0,200r-400,0r0,-200r200,0r0,-200r800,0r0,200r200,0r0,400r-200,0r0,200r200,0r0,400r-200,0r0,200r-800,0r0,-200r-200,0r0,-200"},"4":{"d":"200,-800r400,0r0,-200r200,0r0,-200r200,0r0,-200r400,0r0,800r200,0r0,200r-200,0r0,400r-400,0r0,-400r-800,0r0,-400xm600,-600r400,0r0,-200r-400,0r0,200"},"5":{"d":"200,-400r400,0r0,200r400,0r0,-600r-800,0r0,-600r1200,0r0,200r-800,0r0,200r600,0r0,200r200,0r0,600r-200,0r0,200r-800,0r0,-200r-200,0r0,-200"},"6":{"d":"200,-1200r200,0r0,-200r800,0r0,200r200,0r0,200r-400,0r0,-200r-400,0r0,400r600,0r0,200r200,0r0,400r-200,0r0,200r-800,0r0,-200r-200,0r0,-1000xm600,-600r0,400r400,0r0,-400r-400,0"},"7":{"d":"200,-1400r1200,0r0,400r-200,0r0,200r-200,0r0,800r-400,0r0,-800r200,0r0,-200r200,0r0,-200r-400,0r0,200r-400,0r0,-400"},"8":{"d":"200,-600r200,0r0,-200r-200,0r0,-400r200,0r0,-200r800,0r0,200r200,0r0,400r-200,0r0,200r200,0r0,400r-200,0r0,200r-800,0r0,-200r-200,0r0,-400xm600,-600r0,400r400,0r0,-400r-400,0xm600,-1200r0,400r400,0r0,-400r-400,0"},"9":{"d":"200,-400r400,0r0,200r400,0r0,-400r-600,0r0,-200r-200,0r0,-400r200,0r0,-200r800,0r0,200r200,0r0,1000r-200,0r0,200r-800,0r0,-200r-200,0r0,-200xm600,-1200r0,400r400,0r0,-400r-400,0"},":":{"d":"600,-1400r400,0r0,400r-400,0r0,-400xm600,-400r400,0r0,400r-400,0r0,-400"},";":{"d":"400,200r0,-200r200,0r0,-400r400,0r0,400r-200,0r0,200r-400,0xm600,-1400r400,0r0,400r-400,0r0,-400"},"<":{"d":"1400,-1400r0,200r-400,0r0,200r-200,0r0,200r-200,0r0,200r200,0r0,200r200,0r0,200r400,0r0,200r-600,0r0,-200r-200,0r0,-200r-200,0r0,-200r-200,0r0,-200r200,0r0,-200r200,0r0,-200r200,0r0,-200r600,0"},"=":{"d":"200,-1000r1200,0r0,200r-1200,0r0,-200xm200,-600r1200,0r0,200r-1200,0r0,-200"},">":{"d":"800,-1400r0,200r200,0r0,200r200,0r0,200r200,0r0,200r-200,0r0,200r-200,0r0,200r-200,0r0,200r-600,0r0,-200r400,0r0,-200r200,0r0,-200r200,0r0,-200r-200,0r0,-200r-200,0r0,-200r-400,0r0,-200r600,0"},"?":{"d":"200,-1200r200,0r0,-200r800,0r0,200r200,0r0,400r-200,0r0,200r-200,0r0,200r-400,0r0,-200r200,0r0,-200r200,0r0,-400r-400,0r0,200r-400,0r0,-200xm600,-200r400,0r0,200r-400,0r0,-200"},"@":{"d":"200,-1200r200,0r0,-200r800,0r0,200r200,0r0,600r-600,0r0,-400r200,0r0,-200r-400,0r0,1000r600,0r0,200r-800,0r0,-200r-200,0r0,-1000xm1200,-200r0,-200r200,0r0,200r-200,0"},"A":{"d":"200,-1000r200,0r0,-200r200,0r0,-200r400,0r0,200r200,0r0,200r200,0r0,1000r-400,0r0,-600r-400,0r0,600r-400,0r0,-1000xm600,-1000r0,200r400,0r0,-200r-400,0"},"B":{"d":"200,-1400r1000,0r0,200r200,0r0,400r-200,0r0,200r200,0r0,400r-200,0r0,200r-1000,0r0,-1400xm600,-600r0,400r400,0r0,-400r-400,0xm600,-1200r0,400r400,0r0,-400r-400,0"},"C":{"d":"200,-1200r200,0r0,-200r800,0r0,200r200,0r0,200r-400,0r0,-200r-400,0r0,1000r400,0r0,-200r400,0r0,200r-200,0r0,200r-800,0r0,-200r-200,0r0,-1000"},"D":{"d":"200,-1400r800,0r0,200r200,0r0,200r200,0r0,600r-200,0r0,200r-200,0r0,200r-800,0r0,-1400xm600,-1200r0,1000r200,0r0,-200r200,0r0,-600r-200,0r0,-200r-200,0"},"E":{"d":"200,-1400r1200,0r0,200r-800,0r0,400r400,0r0,200r-400,0r0,400r800,0r0,200r-1200,0r0,-1400"},"F":{"d":"200,-1400r1200,0r0,200r-800,0r0,400r400,0r0,200r-400,0r0,600r-400,0r0,-1400"},"G":{"d":"200,-1200r200,0r0,-200r800,0r0,200r200,0r0,200r-400,0r0,-200r-400,0r0,1000r400,0r0,-400r-200,0r0,-200r600,0r0,600r-200,0r0,200r-800,0r0,-200r-200,0r0,-1000"},"H":{"d":"200,-1400r400,0r0,600r400,0r0,-600r400,0r0,1400r-400,0r0,-600r-400,0r0,600r-400,0r0,-1400"},"I":{"d":"600,-1200r-200,0r0,-200r800,0r0,200r-200,0r0,1000r200,0r0,200r-800,0r0,-200r200,0r0,-1000"},"J":{"d":"200,-400r400,0r0,200r200,0r0,-1000r-200,0r0,-200r800,0r0,200r-200,0r0,1000r-200,0r0,200r-600,0r3,-208r-203,0r0,-192"},"K":{"d":"200,-1400r400,0r0,400r200,0r0,-200r200,0r0,-200r400,0r0,200r-200,0r0,200r-200,0r0,200r-200,0r0,200r200,0r0,200r200,0r0,200r200,0r0,200r-400,0r0,-200r-200,0r0,-200r-200,0r0,400r-400,0r0,-1400"},"L":{"d":"200,-1400r400,0r0,1200r800,0r0,200r-1200,0r0,-1400"},"M":{"d":"200,-1400r400,0r0,200r200,0r0,200r200,0r0,-200r200,0r0,-200r400,0r0,1400r-400,0r0,-800r-200,0r0,200r-200,0r0,-200r-200,0r0,800r-400,0r0,-1400"},"N":{"d":"200,-1400r400,0r0,200r200,0r0,200r200,0r0,-400r400,0r0,1400r-400,0r0,-400r-200,0r0,-200r-200,0r0,600r-400,0r0,-1400"},"O":{"d":"200,-1200r200,0r0,-200r800,0r0,200r200,0r0,1000r-200,0r0,200r-800,0r0,-200r-200,0r0,-1000xm600,-1200r0,1000r400,0r0,-1000r-400,0"},"P":{"d":"200,-1400r1000,0r0,200r200,0r0,400r-200,0r0,200r-600,0r0,600r-400,0r0,-1400xm600,-1200r0,400r400,0r0,-400r-400,0"},"Q":{"d":"400,-1200r0,-200r800,0r0,200r200,0r0,800r-200,0r0,200r200,0r0,200r-600,0r0,-200r-400,0r0,-200r-200,0r0,-800r200,0xm1000,-400r0,-800r-400,0r0,800r400,0"},"R":{"d":"200,-1400r1000,0r0,200r200,0r0,400r-200,0r0,200r-200,0r0,200r200,0r0,200r200,0r0,200r-400,0r0,-200r-200,0r0,-200r-200,0r0,400r-400,0r0,-1400xm600,-1200r0,400r400,0r0,-400r-400,0"},"S":{"d":"200,-400r400,0r0,200r400,0r0,-400r-600,0r0,-200r-200,0r0,-400r200,0r0,-200r800,0r0,200r200,0r0,200r-400,0r0,-200r-400,0r0,400r600,0r0,200r200,0r0,400r-200,0r0,200r-800,0r0,-200r-200,0r0,-200"},"T":{"d":"200,-1400r1200,0r0,200r-400,0r0,1200r-400,0r0,-1200r-400,0r0,-200"},"U":{"d":"200,-1400r400,0r0,1200r400,0r0,-1200r400,0r0,1200r-200,0r0,200r-800,0r0,-200r-200,0r0,-1200"},"V":{"d":"200,-1400r400,0r0,1000r400,0r0,-1000r400,0r0,1000r-200,0r0,200r-200,0r0,200r-400,0r0,-200r-200,0r0,-200r-200,0r0,-1000"},"W":{"d":"200,-1400r400,0r0,800r200,0r0,-200r200,0r0,200r200,0r0,-800r400,0r0,1400r-400,0r0,-200r-200,0r0,-200r-200,0r0,200r-200,0r0,200r-400,0r0,-1400"},"X":{"d":"200,-400r200,0r0,-200r200,0r0,-200r-200,0r0,-200r-200,0r0,-400r400,0r0,400r400,0r0,-400r400,0r0,400r-200,0r0,200r-200,0r0,200r200,0r0,200r200,0r0,400r-400,0r0,-400r-400,0r0,400r-400,0r0,-400"},"Y":{"d":"200,-1400r400,0r0,600r400,0r0,-600r400,0r0,600r-200,0r0,200r-200,0r0,600r-400,0r0,-600r-200,0r0,-200r-200,0r0,-600"},"Z":{"d":"200,-400r200,0r0,-200r200,0r0,-200r200,0r0,-200r200,0r0,-200r-800,0r0,-200r1200,0r0,400r-200,0r0,200r-200,0r0,200r-200,0r0,200r-200,0r0,200r800,0r0,200r-1200,0r0,-400"},"[":{"d":"400,-1400r800,0r0,200r-400,0r0,1000r400,0r0,200r-800,0r0,-1400"},"\\":{"d":"1600,0r-400,0r0,-200r-200,0r0,-200r-200,0r0,-200r-200,0r0,-200r-200,0r0,-200r-200,0r0,-200r400,0r0,200r200,0r0,200r200,0r0,200r200,0r0,200r200,0r0,200r200,0r0,200"},"]":{"d":"1200,0r-800,0r0,-200r400,0r0,-1000r-400,0r0,-200r800,0r0,1400"},"^":{"d":"200,-1000r200,0r0,-200r200,0r0,-200r400,0r0,200r200,0r0,200r200,0r0,200r-400,0r0,800r-400,0r0,-800r-400,0r0,-200"},"_":{"d":"0,-200r1600,0r0,200r-1600,0r0,-200"},"`":{"d":"1000,-1400r0,200r200,0r0,200r200,0r0,200r-400,0r0,-200r-200,0r0,-200r-200,0r0,-200r400,0"},"a":{"d":"200,-400r200,0r0,-200r600,0r0,-200r-600,0r0,-200r800,0r0,200r200,0r0,800r-1000,0r0,-200r-200,0r0,-200xm600,-400r0,200r400,0r0,-200r-400,0"},"b":{"d":"200,-1200r400,0r0,400r600,0r0,200r200,0r0,400r-200,0r0,200r-1000,0r0,-1200xm600,-600r0,400r400,0r0,-400r-400,0"},"c":{"d":"200,-800r200,0r0,-200r800,0r0,200r-600,0r0,600r600,0r0,200r-800,0r0,-200r-200,0r0,-600"},"d":{"d":"1400,0r-1000,0r0,-200r-200,0r0,-400r200,0r0,-200r600,0r0,-400r400,0r0,1200xm600,-600r0,400r400,0r0,-400r-400,0"},"e":{"d":"200,-800r200,0r0,-200r800,0r0,200r200,0r0,400r-800,0r0,200r600,0r0,200r-800,0r0,-200r-200,0r0,-600xm600,-800r0,200r400,0r0,-200r-400,0"},"f":{"d":"800,-1200r600,0r0,200r-400,0r0,200r400,0r0,200r-400,0r0,600r-400,0r0,-600r-200,0r0,-200r200,0r0,-200r200,0r0,-200"},"g":{"d":"200,0r800,0r0,-200r-600,0r0,-200r-200,0r0,-400r200,0r0,-200r1000,0r0,1000r-200,0r0,200r-1000,0r0,-200xm600,-800r0,400r400,0r0,-400r-400,0"},"h":{"d":"200,-1400r400,0r0,400r600,0r0,200r200,0r0,800r-400,0r0,-800r-400,0r0,800r-400,0r0,-1400"},"i":{"d":"600,-800r-200,0r0,-200r600,0r0,800r200,0r0,200r-800,0r0,-200r200,0r0,-600xm600,-1400r400,0r0,200r-400,0r0,-200"},"j":{"d":"800,-1200r400,0r0,200r-400,0r0,-200xm800,-800r400,0r0,800r-200,0r0,200r-600,0r0,-200r400,0r0,-800"},"k":{"d":"200,-1400r400,0r0,800r200,0r0,-200r400,0r0,200r-200,0r0,200r200,0r0,200r200,0r0,200r-400,0r0,-200r-200,0r0,-200r-200,0r0,400r-400,0r0,-1400"},"l":{"d":"600,-1200r-200,0r0,-200r600,0r0,1200r200,0r0,200r-800,0r0,-200r200,0r0,-1000"},"m":{"d":"200,-1000r400,0r0,200r400,0r0,-200r400,0r0,200r200,0r0,800r-400,0r0,-400r-200,0r0,200r-200,0r0,-200r-200,0r0,400r-400,0r0,-1000"},"n":{"d":"200,-1000r1000,0r0,200r200,0r0,800r-400,0r0,-800r-400,0r0,800r-400,0r0,-1000"},"o":{"d":"200,-800r200,0r0,-200r800,0r0,200r200,0r0,600r-200,0r0,200r-800,0r0,-200r-200,0r0,-600xm600,-800r0,600r400,0r0,-600r-400,0"},"p":{"d":"200,-1000r1000,0r0,200r200,0r0,400r-200,0r0,200r-600,0r0,400r-400,0r0,-1200xm600,-800r0,400r400,0r0,-400r-400,0"},"q":{"d":"1400,200r-400,0r0,-400r-600,0r0,-200r-200,0r0,-400r200,0r0,-200r1000,0r0,1200xm600,-800r0,400r400,0r0,-400r-400,0"},"r":{"d":"200,-1000r1000,0r0,200r200,0r0,200r-400,0r0,-200r-400,0r0,800r-400,0r0,-1000"},"s":{"d":"200,-200r800,0r0,-200r-600,0r0,-200r-200,0r0,-200r200,0r0,-200r1000,0r0,200r-800,0r0,200r600,0r0,200r200,0r0,200r-200,0r0,200r-1000,0r0,-200"},"t":{"d":"200,-1000r400,0r0,-200r400,0r0,200r400,0r0,200r-400,0r0,600r400,0r0,200r-600,0r0,-200r-200,0r0,-600r-400,0r0,-200"},"u":{"d":"200,-1000r400,0r0,800r400,0r0,-800r400,0r0,1000r-1000,0r0,-200r-200,0r0,-800"},"v":{"d":"200,-1000r400,0r0,600r400,0r0,-600r400,0r0,600r-200,0r0,200r-200,0r0,200r-400,0r0,-200r-200,0r0,-200r-200,0r0,-600"},"w":{"d":"200,-1000r400,0r0,400r200,0r0,-200r200,0r0,200r200,0r0,-400r400,0r0,600r-200,0r0,400r-400,0r0,-200r-200,0r0,200r-400,0r0,-400r-200,0r0,-600"},"x":{"d":"200,-200r200,0r0,-200r200,0r0,-200r-200,0r0,-200r-200,0r0,-200r400,0r0,200r400,0r0,-200r400,0r0,200r-200,0r0,200r-200,0r0,200r200,0r0,200r200,0r0,200r-400,0r0,-200r-400,0r0,200r-400,0r0,-200"},"y":{"d":"200,0r600,0r0,-200r-400,0r0,-200r-200,0r0,-600r400,0r0,600r400,0r0,-600r400,0r0,800r-200,0r0,200r-200,0r0,200r-800,0r0,-200"},"z":{"d":"200,-200r200,0r0,-200r200,0r0,-200r200,0r0,-200r-600,0r0,-200r1200,0r0,200r-200,0r0,200r-200,0r0,200r-200,0r0,200r600,0r0,200r-1200,0r0,-200"},"{":{"d":"1400,-1400r0,200r-400,0r0,400r-200,0r0,200r200,0r0,400r400,0r0,200r-600,0r0,-200r-200,0r0,-400r-400,0r0,-200r400,0r0,-400r200,0r0,-200r600,0"},"|":{"d":"600,-1400r400,0r0,1400r-400,0r0,-1400"},"}":{"d":"800,-1400r0,200r200,0r0,400r400,0r0,200r-400,0r0,400r-200,0r0,200r-600,0r0,-200r400,0r0,-400r200,0r0,-200r-200,0r0,-400r-400,0r0,-200r600,0"},"~":{"d":"1400,-1000r-200,0r0,200r-600,0r0,-200r-200,0r0,200r-200,0r0,-600r600,0r0,200r400,0r0,-200r200,0r0,400"},"\u00c7":{"d":"800,200r-400,0r200,-200r400,0xm200,-1200r200,0r0,-200r800,0r0,200r200,0r0,200r-400,0r0,-200r-400,0r0,1000r400,0r0,-200r400,0r0,200r-200,0r0,200r-800,0r0,-200r-200,0r0,-1000"},"\u00d6":{"d":"504,-1796r196,0r0,196r-196,0r0,-196xm904,-1796r196,0r0,196r-196,0r0,-196xm600,-1200r0,1000r400,0r0,-1000r-400,0xm200,-1200r200,0r0,-200r800,0r0,200r200,0r0,1000r-200,0r0,200r-800,0r0,-200r-200,0r0,-1000"},"\u00dc":{"d":"508,-1796r196,0r0,196r-196,0r0,-196xm904,-1802r196,0r0,196r-196,0r0,-196xm200,-1400r400,0r0,1200r400,0r0,-1200r400,0r0,1200r-200,0r0,200r-800,0r0,-200r-200,0r0,-1200"},"\u00e7":{"d":"200,-800r200,0r0,-200r800,0r0,200r-600,0r0,600r600,0r0,200r-800,0r0,-200r-200,0r0,-600xm800,200r-400,0r200,-200r400,0"},"\u00f6":{"d":"600,-800r0,600r400,0r0,-600r-400,0xm500,-1396r196,0r0,196r-196,0r0,-196xm896,-1402r196,0r0,196r-196,0r0,-196xm200,-800r200,0r0,-200r800,0r0,200r200,0r0,600r-200,0r0,200r-800,0r0,-200r-200,0r0,-600"},"\u00fc":{"d":"500,-1396r196,0r0,196r-196,0r0,-196xm896,-1402r196,0r0,196r-196,0r0,-196xm200,-1000r400,0r0,800r400,0r0,-800r400,0r0,1000r-1000,0r0,-200r-200,0r0,-800"},"\u0131":{"d":"600,-1400r-200,0r0,-200r200,0r0,-200r400,0r0,600r200,0r0,200r-800,0r0,-200r200,0r0,-200"},"\u20ac":{"d":"400,-1200r200,0r0,-200r600,0r0,200r200,0r0,200r-400,0r0,-200r-200,0r0,400r400,0r0,200r-400,0r0,400r200,0r0,-200r400,0r0,200r-200,0r0,200r-600,0r0,-200r-200,0r0,-400r-200,0r0,-200r200,0r0,-400"},"\u00a0":{}}});
