// #### Generated By: http://www.cufonfonts.com ####
/*!
 * The following copyright notice may not be removed under any circumstances.
 * 
 * Copyright:
 * http://www.fatorcaos.com.br
 * 
 * Trademark:
 * http://www.fatorcaos.com.br
 * 
 * Description:
 * http://www.fatorcaos.com.br
 * 
 * Manufacturer:
 * zeh
 * 
 * Designer:
 * http://www.fatorcaos.com.br
 * 
 * Vendor URL:
 * http://www.fatorcaos.com.br
 */
Raphael.registerFont({"w":2304,"face":{"font-family":"Perfect DOS VGA 437","font-weight":400,"font-stretch":"normal","units-per-em":"4096","panose-1":"2 0 0 9 0 0 0 0 0 0","ascent":"3072","descent":"-1024","bbox":"0 -3072 2304 1024","underline-thickness":"256","underline-position":"0","unicode-range":"U+0001-U+20AC"},"glyphs":{" ":{},"\t":{"d":"768,-512r512,0r0,-256r256,0r0,-512r-256,0r0,-256r-512,0r0,256r-256,0r0,512r256,0r0,256xm256,-1536r256,0r0,-256r1024,0r0,256r256,0r0,1024r-256,0r0,256r-1024,0r0,-256r-256,0r0,-1024"},"\n":{"d":"1280,-512r-512,0r0,-256r-256,0r0,-512r256,0r0,-256r512,0r0,256r256,0r0,512r-256,0r0,256xm1536,-256r0,-256r256,0r0,-1024r-256,0r0,-256r-1024,0r0,256r-256,0r0,1024r256,0r0,256r1024,0xm0,-3072r2048,0r0,4096r-2048,0r0,-4096"},"\r":{"d":"1024,-2048r512,0r0,-256r-512,0r0,256xm1024,-1792r0,1536r-256,0r0,256r-768,0r0,-512r256,0r0,-256r256,0r0,-1792r1536,0r0,768r-1024,0"},"!":{"d":"768,-512r512,0r0,512r-512,0r0,-512xm512,-2304r256,0r0,-256r512,0r0,256r256,0r0,768r-256,0r0,768r-512,0r0,-768r-256,0r0,-768"},"\"":{"d":"1536,-1792r-256,0r0,-1024r512,0r0,768r-256,0r0,256xm512,-2048r-256,0r0,-768r512,0r0,1024r-256,0r0,-256"},"#":{"d":"1024,-768r0,-768r-256,0r0,768r256,0xm256,-2304r512,0r0,512r256,0r0,-512r512,0r0,512r256,0r0,256r-256,0r0,768r256,0r0,256r-256,0r0,512r-512,0r0,-512r-256,0r0,512r-512,0r0,-512r-256,0r0,-256r256,0r0,-768r-256,0r0,-256r256,0r0,-512"},"$":{"d":"1280,-2304r-768,0r0,768r1024,0r0,256r256,0r0,1024r-256,0r0,256r-256,0r0,512r-512,0r0,-512r-512,0r0,-256r-256,0r0,-512r256,0r0,256r256,0r0,256r768,0r0,-1024r-1024,0r0,-256r-256,0r0,-768r256,0r0,-256r512,0r0,-512r512,0r0,512r256,0r0,256r256,0r0,512r-256,0r0,-256r-256,0r0,-256"},"%":{"d":"1280,-512r512,0r0,512r-512,0r0,-512xm0,-2048r512,0r0,512r-512,0r0,-512xm1536,-1280r-256,0r0,256r-256,0r0,256r-256,0r0,256r-256,0r0,256r-256,0r0,256r-256,0r0,-512r256,0r0,-256r256,0r0,-256r256,0r0,-256r256,0r0,-256r256,0r0,-256r256,0r0,-256r256,0r0,512r-256,0r0,256"},"&":{"d":"1024,-2304r-256,0r0,512r256,0r0,-512xm1280,-1280r2,-256r510,0r0,256r-256,0r0,1024r256,0r0,256r-512,0r0,-256r-256,0r0,-768r-256,0r0,-256r-256,0r0,1024r510,0v7,79,0,172,2,256r-768,0r0,-256r-256,0r0,-1024r256,0r0,-256r256,0r0,-256r-256,0r0,-512r256,0r0,-256r768,0r0,256r256,0r0,512r-256,0r0,256r-256,0r0,256r256,0"},"'":{"d":"256,-2048r256,0r0,-768r512,0r0,768r-256,0r0,256r-512,0r0,-256"},"(":{"d":"512,-2048r256,0r0,-256r256,0r0,-256r512,0r0,256r-256,0r0,256r-256,0r0,1536r256,0r0,256r256,0r0,256r-512,0r0,-256r-256,0r0,-256r-256,0r0,-1536"},")":{"d":"512,-256r256,0r0,-256r256,0r0,-1536r-256,0r0,-256r-256,0r0,-256r512,0r0,256r256,0r0,256r256,0r0,1536r-256,0r0,256r-256,0r0,256r-512,0r0,-256"},"*":{"d":"256,-1792r512,0r0,256r512,0r0,-256r512,0r0,256r-256,0r0,256r512,0r0,256r-512,0r0,256r256,0r0,256r-512,0r0,-256r-512,0r0,256r-512,0r0,-256r256,0r0,-256r-512,0r0,-256r512,0r0,-256r-256,0r0,-256"},"+":{"d":"256,-1280r512,0r0,-512r512,0r0,512r512,0r0,256r-512,0r0,512r-512,0r0,-512r-512,0r0,-256"},",":{"d":"512,0r256,0r0,-768r512,0r0,768r-256,0r0,256r-512,0r0,-256"},"-":{"d":"0,-1280r1792,0r0,256r-1792,0r0,-256"},".":{"d":"768,-512r512,0r0,512r-512,0r0,-512"},"\/":{"d":"1536,-1280r-256,0r0,256r-256,0r0,256r-256,0r0,256r-256,0r0,256r-256,0r0,256r-256,0r0,-512r256,0r0,-256r256,0r0,-256r256,0r0,-256r256,0r0,-256r256,0r0,-256r256,0r0,-256r256,0r0,512r-256,0r0,256"},"0":{"d":"768,-1536r256,0r0,512r-256,0r0,-512xm1024,-512r256,0r0,-1536r-256,0r0,-256r-256,0r0,256r-256,0r0,1536r256,0r0,256r256,0r0,-256xm512,-256r-256,0r0,-256r-256,0r0,-1536r256,0r0,-256r256,0r0,-256r768,0r0,256r256,0r0,256r256,0r0,1536r-256,0r0,256r-256,0r0,256r-768,0r0,-256"},"1":{"d":"256,-2048r256,0r0,-256r256,0r0,-256r512,0r0,2304r512,0r0,256r-1536,0r0,-256r512,0r0,-1536r-512,0r0,-256"},"2":{"d":"0,-768r256,0r0,-256r256,0r0,-256r256,0r0,-256r256,0r0,-256r256,0r0,-512r-768,0r0,256r-512,0r0,-256r256,0r0,-256r1280,0r0,256r256,0r0,512r-256,0r0,256r-256,0r0,256r-256,0r0,256r-256,0r0,256r-256,0r0,512r768,0r0,-256r512,0r0,512r-1792,0r0,-768"},"3":{"d":"512,-1536r768,0r0,-768r-768,0r0,256r-512,0r0,-256r256,0r0,-256r1280,0r0,256r256,0r0,768r-256,0r0,256r256,0r0,1024r-256,0r0,256r-1280,0r0,-256r-256,0r0,-256r512,0r0,256r768,0r0,-1024r-768,0r0,-256"},"4":{"d":"512,-1280r512,0r0,-512r-256,0r0,256r-256,0r0,256xm1792,-1280r0,256r-256,0r0,768r256,0r0,256r-1024,0r0,-256r256,0r0,-768r-1024,0r0,-512r256,0r0,-256r256,0r0,-256r256,0r0,-256r256,0r0,-256r512,0r0,1280r256,0"},"5":{"d":"512,-1536r1024,0r0,256r256,0r0,1024r-256,0r0,256r-1280,0r0,-256r-256,0r0,-256r512,0r0,256r768,0r0,-1024r-1280,0r0,-1280r1792,0r0,256r-1280,0r0,768"},"6":{"d":"1280,-1280r-768,0r0,1024r768,0r0,-1024xm256,-2304r256,0r0,-256r768,0r0,256r-512,0r0,256r-256,0r0,512r1024,0r0,256r256,0r0,1024r-256,0r0,256r-1280,0r0,-256r-256,0r0,-1792r256,0r0,-256"},"7":{"d":"512,-1024r256,0r0,-256r256,0r0,-256r256,0r0,-768r-768,0r0,256r-512,0r0,-512r1792,0r0,1024r-256,0r0,256r-256,0r0,256r-256,0r0,1024r-512,0r0,-1024"},"8":{"d":"1280,-2304r-768,0r0,768r768,0r0,-768xm1280,-1280r-768,0r0,1024r768,0r0,-1024xm0,-1280r256,0r0,-256r-256,0r0,-768r256,0r0,-256r1280,0r0,256r256,0r0,768r-256,0r0,256r256,0r0,1024r-256,0r0,256r-1280,0r0,-256r-256,0r0,-1024"},"9":{"d":"256,-256r1024,0r0,256r-1024,0r0,-256xm512,-1536r768,0r0,-768r-768,0r0,768xm1024,-512r256,0r0,-768r-1024,0r0,-256r-256,0r0,-768r256,0r0,-256r1280,0r0,256r256,0r0,1792r-256,0r0,256r-512,0r0,-256"},":":{"d":"768,-768r512,0r0,512r-512,0r0,-512xm768,-2048r512,0r0,512r-512,0r0,-512"},";":{"d":"768,-2048r512,0r0,512r-512,0r0,-512xm768,-768r512,0r0,512r-256,0r0,256r-512,0r0,-256r256,0r0,-512"},"<":{"d":"1280,-2304r512,0r0,256r-256,0r0,256r-256,0r0,256r-256,0r0,256r-256,0r0,256r256,0r0,256r256,0r0,256r256,0r0,256r256,0r0,256r-512,0r0,-256r-256,0r0,-256r-256,0r0,-256r-256,0r0,-256r-256,0r0,-256r256,0r0,-256r256,0r0,-256r256,0r0,-256r256,0r0,-256"},"=":{"d":"256,-1792r1536,0r0,256r-1536,0r0,-256xm256,-1024r1536,0r0,256r-1536,0r0,-256"},">":{"d":"256,-2304r512,0r0,256r256,0r0,256r256,0r0,256r256,0r0,256r256,0r0,256r-256,0r0,256r-256,0r0,256r-256,0r0,256r-256,0r0,256r-512,0r0,-256r256,0r0,-256r256,0r0,-256r256,0r0,-256r256,0r0,-256r-256,0r0,-256r-256,0r0,-256r-256,0r0,-256r-256,0r0,-256"},"?":{"d":"768,-512r512,0r0,512r-512,0r0,-512xm768,-1536r256,0r0,-256r256,0r0,-512r-768,0r0,512r-512,0r0,-512r256,0r0,-256r1280,0r0,256r256,0r0,512r-256,0r0,256r-256,0r0,768r-512,0r0,-768"},"@":{"d":"768,-1536r512,0r0,-512r-768,0r0,1792r1024,0r0,256r-1280,0r0,-256r-256,0r0,-1792r256,0r0,-256r1280,0r0,256r256,0r0,1280r-256,0r0,256r-768,0r0,-1024"},"A":{"d":"1024,-2048r-256,0r0,256r-256,0r0,512r768,0r0,-512r-256,0r0,-256xm1280,0r0,-1024r-768,0r0,1024r-512,0r0,-1792r256,0r0,-256r256,0r0,-256r256,0r0,-256r256,0r0,256r256,0r0,256r256,0r0,256r256,0r0,1792r-512,0"},"B":{"d":"768,-1536r512,0r0,-768r-512,0r0,768xm1280,-1280r-512,0r0,1024r512,0r0,-1024xm0,-256r256,0r0,-2048r-256,0r0,-256r1536,0r0,256r256,0r0,768r-256,0r0,256r256,0r0,1024r-256,0r0,256r-1536,0r0,-256"},"C":{"d":"1280,-2304r-512,0r0,256r-256,0r0,1536r256,0r0,256r512,0r0,-256r256,0r0,-256r256,0r0,512r-256,0r0,256r-1024,0r0,-256r-256,0r0,-256r-256,0r0,-1536r256,0r0,-256r256,0r0,-256r1024,0r0,256r256,0r0,512r-256,0r0,-256r-256,0r0,-256"},"D":{"d":"1280,-2048r-256,0r0,-256r-256,0r0,2048r256,0r0,-256r256,0r0,-1536xm1280,-256r0,256r-1280,0r0,-256r256,0r0,-2048r-256,0r0,-256r1280,0r0,256r256,0r0,256r256,0r0,1536r-256,0r0,256r-256,0"},"E":{"d":"1024,-1280r-256,0r0,1024r512,0r0,-256r256,0r0,-256r256,0r0,768r-1792,0r0,-256r256,0r0,-2048r-256,0r0,-256r1792,0r0,768r-256,0r0,-256r-256,0r0,-256r-512,0r0,768r256,0r0,-256r256,0r0,768r-256,0r0,-256"},"F":{"d":"1536,-2048r-256,0r0,-256r-512,0r0,768r256,0r0,-256r256,0r0,768r-256,0r0,-256r-256,0r0,1024r256,0r0,256r-1024,0r0,-256r256,0r0,-2048r-256,0r0,-256r1792,0r0,768r-256,0r0,-256"},"G":{"d":"768,-1280r1024,0r0,1280r-256,0r0,-256r-256,0r0,-768r-512,0r0,-256xm1280,-2304r-512,0r0,256r-256,0r0,1536r256,0r0,256r512,0r0,256r-768,0r0,-256r-256,0r0,-256r-256,0r0,-1536r256,0r0,-256r256,0r0,-256r1024,0r0,256r256,0r0,512r-256,0r0,-256r-256,0r0,-256"},"H":{"d":"1280,-1280r-768,0r0,1280r-512,0r0,-2560r512,0r0,1024r768,0r0,-1024r512,0r0,2560r-512,0r0,-1280"},"I":{"d":"512,-2560r1024,0r0,256r-256,0r0,2048r256,0r0,256r-1024,0r0,-256r256,0r0,-2048r-256,0r0,-256"},"J":{"d":"768,-2560r1024,0r0,256r-256,0r0,2048r-256,0r0,256r-1024,0r0,-256r-256,0r0,-768r512,0r0,768r512,0r0,-2048r-256,0r0,-256"},"K":{"d":"1536,-1536r-256,0r0,512r256,0r0,256r256,0r0,768r-512,0r0,-768r-256,0r0,-256r-256,0r0,1024r-768,0r0,-256r256,0r0,-2048r-256,0r0,-256r768,0r0,1024r256,0r0,-256r256,0r0,-768r512,0r0,768r-256,0r0,256"},"L":{"d":"768,-256r512,0r0,-256r256,0r0,-256r256,0r0,768r-1792,0r0,-256r256,0r0,-2048r-256,0r0,-256r1024,0r0,256r-256,0r0,2048"},"M":{"d":"1024,-1280r-256,0r0,-256r-256,0r0,1536r-512,0r0,-2560r512,0r0,256r256,0r0,256r256,0r0,-256r256,0r0,-256r512,0r0,2560r-512,0r0,-1536r-256,0r0,256"},"N":{"d":"1024,-1280r-256,0r0,-256r-256,0r0,1536r-512,0r0,-2560r512,0r0,256r256,0r0,256r256,0r0,256r256,0r0,-768r512,0r0,2560r-512,0r0,-1024r-256,0r0,-256"},"O":{"d":"1280,-2304r-768,0r0,2048r768,0r0,-2048xm0,-2304r256,0r0,-256r1280,0r0,256r256,0r0,2048r-256,0r0,256r-1280,0r0,-256r-256,0r0,-2048"},"P":{"d":"1280,-2304r-512,0r0,768r512,0r0,-768xm768,-256r256,0r0,256r-1024,0r0,-256r256,0r0,-2048r-256,0r0,-256r1536,0r0,256r256,0r0,768r-256,0r0,256r-768,0r0,1024"},"Q":{"d":"1024,-512r256,0r0,-1792r-768,0r0,2048r256,0r0,-512r256,0r0,256xm1024,0r-768,0r0,-256r-256,0r0,-2048r256,0r0,-256r1280,0r0,256r256,0r0,2048r-256,0r0,512r256,0r0,256r-768,0r0,-512"},"R":{"d":"1280,-2304r-512,0r0,768r512,0r0,-768xm1280,-1024r-256,0r0,-256r-256,0r0,1280r-768,0r0,-256r256,0r0,-2048r-256,0r0,-256r1536,0r0,256r256,0r0,768r-256,0r0,512r256,0r0,1024r-512,0r0,-1024"},"S":{"d":"0,-768r512,0r0,512r768,0r0,-768r-256,0r0,-256r-512,0r0,-256r-256,0r0,-256r-256,0r0,-512r256,0r0,-256r1280,0r0,256r256,0r0,512r-512,0r0,-512r-768,0r0,512r256,0r0,256r512,0r0,256r256,0r0,256r256,0r0,768r-256,0r0,256r-1280,0r0,-256r-256,0r0,-512"},"T":{"d":"512,-256r256,0r0,-1792r-256,0r0,256r-256,0r0,-768r1536,0r0,768r-256,0r0,-256r-256,0r0,1792r256,0r0,256r-1024,0r0,-256"},"U":{"d":"0,-2560r512,0r0,2304r768,0r0,-2304r512,0r0,2304r-256,0r0,256r-1280,0r0,-256r-256,0r0,-2304"},"V":{"d":"768,-256r-256,0r0,-256r-256,0r0,-256r-256,0r0,-1792r512,0r0,1792r256,0r0,256r256,0r0,-256r256,0r0,-1792r512,0r0,1792r-256,0r0,256r-256,0r0,256r-256,0r0,256r-256,0r0,-256"},"W":{"d":"768,0r-512,0r0,-256r-256,0r0,-2304r512,0r0,1792r256,0r0,-768r256,0r0,768r256,0r0,-1792r512,0r0,2304r-256,0r0,256r-512,0r0,-512r-256,0r0,512"},"X":{"d":"512,-1536r-256,0r0,-512r-256,0r0,-512r512,0r0,512r256,0r0,256r256,0r0,-256r256,0r0,-512r512,0r0,512r-256,0r0,512r-256,0r0,512r256,0r0,512r256,0r0,512r-512,0r0,-512r-256,0r0,-256r-256,0r0,256r-256,0r0,512r-512,0r0,-512r256,0r0,-512r256,0r0,-512"},"Y":{"d":"512,-256r256,0r0,-1024r-256,0r0,-256r-256,0r0,-1024r512,0r0,1024r512,0r0,-1024r512,0r0,1024r-256,0r0,256r-256,0r0,1024r256,0r0,256r-1024,0r0,-256"},"Z":{"d":"0,-768r256,0r0,-256r256,0r0,-256r256,0r0,-256r256,0r0,-256r256,0r0,-512r-768,0r0,256r-256,0r0,256r-256,0r0,-768r1792,0r0,768r-256,0r0,256r-256,0r0,256r-256,0r0,256r-256,0r0,256r-256,0r0,512r768,0r0,-256r256,0r0,-256r256,0r0,768r-1792,0r0,-768"},"[":{"d":"1024,-256r512,0r0,256r-1024,0r0,-2560r1024,0r0,256r-512,0r0,2048"},"\\":{"d":"1536,-256r-256,0r0,-256r-256,0r0,-256r-256,0r0,-256r-256,0r0,-256r-256,0r0,-256r-256,0r0,-768r256,0r0,256r256,0r0,256r256,0r0,256r256,0r0,256r256,0r0,256r256,0r0,256r256,0r0,768r-256,0r0,-256"},"]":{"d":"512,-256r512,0r0,-2048r-512,0r0,-256r1024,0r0,2560r-1024,0r0,-256"},"^":{"d":"1024,-2560r-256,0r0,256r-256,0r0,256r-512,0r0,-256r256,0r0,-256r256,0r0,-256r256,0r0,-256r256,0r0,256r256,0r0,256r256,0r0,256r256,0r0,256r-512,0r0,-256r-256,0r0,-256"},"_":{"d":"0,256r2048,0r0,256r-2048,0r0,-256"},"`":{"d":"1024,-2304r-256,0r0,-256r-256,0r0,-256r512,0r0,256r256,0r0,256r256,0r0,256r-512,0r0,-256"},"a":{"d":"1024,0r-768,0r0,-256r-256,0r0,-768r256,0r0,-256r768,0r0,-256r-768,0r0,-256r1024,0r0,256r256,0r0,1280r256,0r0,256r-512,0r0,-256r-256,-2r0,-766r-512,0r0,768r512,0r0,256"},"b":{"d":"1024,-1536r-256,0r0,1280r512,0r0,-1024r-256,0r0,-256xm768,-1792r512,0r0,256r256,0r0,256r256,0r0,1024r-256,0r0,256r-1280,0r0,-2304r-256,0r0,-256r768,0r0,768"},"c":{"d":"1280,-1536r-768,0r0,1280r768,0r0,-256r512,0r0,256r-256,0r0,256r-1280,0r0,-256r-256,0r0,-1280r256,0r0,-256r1280,0r0,256r256,0r0,256r-512,0r0,-256"},"d":{"d":"1024,-1536r-256,0r0,256r-256,0r0,1024r512,2r0,254r-768,0r0,-256r-256,0r0,-1024r256,0r0,-256r256,0r0,-256r512,0r0,-512r-256,0r0,-256r768,0r0,2304r256,0r0,256r-512,0r0,-256r-256,0r0,-1280"},"e":{"d":"512,-1280r768,0r0,-256r-768,0r0,256xm256,-1792r1280,0r0,256r256,0r0,512r-1280,0r0,768r768,0r0,-256r512,0r0,256r-256,0r0,256r-1280,0r0,-256r-256,0r0,-1280r256,0r0,-256"},"f":{"d":"256,-1536r256,0r0,-768r256,0r0,-256r768,0r0,256r256,0r0,512r-256,0r0,-256r-256,0r0,-256r-256,0r0,768r256,0r0,256r-256,0r0,1024r256,0r0,256r-1024,0r0,-256r256,0r0,-1024r-256,0r0,-256"},"g":{"d":"1024,-256r2,-1280r254,0r0,-256r512,0r0,256r-256,0r0,2048r-256,0r0,256r-1024,0r0,-256r-256,0r0,-256r512,0r0,256r512,0r0,-512r-768,0r0,-256r-256,0r0,-1280r256,0r0,-256r768,0r0,256r-512,0r0,1280r512,0"},"h":{"d":"1024,-1792r512,0r0,256r256,0r0,1536r-512,0r0,-1536r-256,0r0,-256xm768,0r-768,0r0,-256r256,0r0,-2048r-256,0r0,-256r768,0r0,1024r256,0r0,256r-256,0r0,1280"},"i":{"d":"768,-2560r512,0r0,512r-512,0r0,-512xm512,-1792r768,0r0,1536r256,0r0,256r-1024,0r0,-256r256,0r0,-1280r-256,0r0,-256"},"j":{"d":"1280,-2560r512,0r0,512r-512,0r0,-512xm1024,-1792r768,0r0,2304r-256,0r0,256r-1024,0r0,-256r-256,0r0,-512r512,0r0,512r512,0r0,-2048r-256,0r0,-256"},"k":{"d":"1024,-1536r256,0r0,-256r512,0r0,256r-256,0r0,256r-256,0r0,512r256,0r0,256r256,0r0,512r-512,0r0,-512r-256,0r0,-256r-256,0r0,768r-768,0r0,-256r256,0r0,-2048r-256,0r0,-256r768,0r0,1280r256,0r0,-256"},"l":{"d":"512,-2560r768,0r0,2304r256,0r0,256r-1024,0r0,-256r256,0r0,-2048r-256,0r0,-256"},"m":{"d":"1280,-1280r-256,0r0,1024r-256,0r0,-1024r-256,0r0,1280r-512,0r0,-1792r768,0r0,256r256,0r0,-256r512,0r0,256r256,0r0,1536r-512,0r0,-1280"},"n":{"d":"256,-1536r-256,0r0,-256r512,0r0,256r256,0r0,1536r-512,0r0,-1536xm768,-1792r768,0r0,256r256,0r0,1536r-512,0r0,-1536r-512,0r0,-256"},"o":{"d":"1280,-1536r-768,0r0,1280r768,0r0,-1280xm256,-256r-256,0r0,-1280r256,0r0,-256r1280,0r0,256r256,0r0,1280r-256,0r0,256r-1280,0r0,-256"},"p":{"d":"768,-1792r768,0r0,256r256,0r0,1280r-256,0r0,256r-768,0r0,512r256,0r0,256r-1024,0r0,-256r256,0r0,-2048r-256,0r0,-256r512,0r0,256r256,2r0,1278r512,0r0,-1280r-512,0r0,-256"},"q":{"d":"1024,-256r2,-1280r254,0r0,-256r512,0r0,256r-256,0r0,2048r256,0r0,256r-1024,0r0,-256r256,0r0,-512r-768,0r0,-256r-256,0r0,-1280r256,0r0,-256r768,0r0,256r-512,0r0,1280r512,0"},"r":{"d":"1024,-1280r-256,0r0,1024r256,0r0,256r-1024,0r0,-256r256,0r0,-1280r-256,0r0,-256r512,0r0,256r256,0r0,-256r768,0r0,256r256,0r0,512r-512,0r0,-512r-256,0r0,256"},"s":{"d":"1280,-1536r-768,0r0,256r256,0r0,256r512,0r0,256r256,0r0,256r256,0r0,256r-256,0r0,256r-1280,0r0,-256r-256,0r0,-256r512,0r0,256r768,0r0,-256r-256,0r0,-256r-512,0r0,-256r-256,0r0,-256r-256,0r0,-256r256,0r0,-256r1280,0r0,256r256,0r0,256r-512,0r0,-256"},"t":{"d":"0,-1792r512,0r0,-512r256,0r0,-256r256,0r0,768r512,0r0,256r-512,0r0,1280r256,0r0,-256r512,0r0,256r-256,0r0,256r-768,0r0,-256r-256,0r0,-1280r-512,0r0,-256"},"u":{"d":"1024,-1792r512,0r0,1536r256,0r0,256r-512,0r0,-256r-256,0r0,-1536xm0,-1792r512,0r0,1536r512,0r0,256r-768,0r0,-256r-256,0r0,-1536"},"v":{"d":"1280,-1792r512,0r0,1280r-256,0r0,256r-256,0r0,256r-768,0r0,-256r-256,0r0,-256r-256,0r0,-1280r512,0r0,1280r256,0r0,256r256,0r0,-256r256,0r0,-1280"},"w":{"d":"1536,0r-512,0r0,-256r-256,0r0,256r-512,0r0,-256r-256,0r0,-1536r512,0r0,1280r256,0r0,-768r256,0r0,768r256,0r0,-1280r512,0r0,1536r-256,0r0,256"},"x":{"d":"0,-1792r512,0r0,256r256,0r0,256r256,0r0,-256r256,0r0,-256r512,0r0,256r-256,0r0,256r-256,0r0,768r256,0r0,256r256,0r0,256r-512,0r0,-256r-256,0r0,-256r-256,0r0,256r-256,0r0,256r-512,0r0,-256r256,0r0,-256r256,0r0,-768r-256,0r0,-256r-256,0r0,-256"},"y":{"d":"0,512r1024,0r0,-256r256,0r0,-256r-1024,0r0,-256r-256,0r0,-1536r512,0r0,1536r768,0r0,-1536r512,0r0,2048r-256,0r0,256r-256,0r0,256r-1280,0r0,-256"},"z":{"d":"0,-1792r1792,0r0,256r-256,0r0,256r-256,0r0,256r-256,0r0,256r-256,0r0,256r-256,0r0,256r768,0r0,-256r512,0r0,512r-1792,0r0,-512r256,0r0,-256r256,0r0,-256r256,0r0,-256r256,0r0,-256r-512,0r0,256r-512,0r0,-512"},"{":{"d":"1024,-2560r768,0r0,256r-512,0r0,768r-256,0r0,256r256,0r0,1024r512,0r0,256r-768,0r0,-256r-256,0r0,-1024r-512,0r0,-256r512,0r0,-768r256,0r0,-256"},"|":{"d":"768,-2560r512,0r0,2560r-512,0r0,-2560"},"}":{"d":"256,-256r512,0r0,-1024r256,0r0,-256r-256,0r0,-768r-512,0r0,-256r768,0r0,256r256,0r0,768r512,0r0,256r-512,0r0,1024r-256,0r0,256r-768,0r0,-256"},"~":{"d":"1280,-2816r512,0r0,256r-256,0r0,256r-768,0r0,-256r-256,0r0,256r-512,0r0,-256r256,0r0,-256r768,0r0,256r256,0r0,-256"},"\u20ac":{"d":"256,256r512,0r0,-256r-256,0r0,-256r-256,0r0,-256r-256,0r0,-1536r256,0r0,-256r256,0r0,-256r1024,0r0,256r256,0r0,512r-256,0r0,-256r-256,0r0,-256r-512,0r0,256r-256,0r0,1536r256,0r0,256r512,0r0,-256r256,0r0,-256r256,0r0,512r-256,0r0,256r-256,0r0,256r-256,0r0,256r-768,0r0,-256"},"\u00c7":{"d":"512,-3072r512,0r0,4096r-512,0r0,-4096xm1792,1024r-512,0r0,-4096r512,0r0,1792r512,0r0,256r-512,0r0,2048"},"\u00d6":{"d":"1280,-1024r-256,0r0,2048r-512,0r0,-2304r1792,0r0,256r-512,0r0,2048r-512,0r0,-2048"},"\u00dc":{"d":"0,-1280r2304,0r0,2304r-2304,0r0,-2304"},"\u00e7":{"d":"768,-1792r-256,0r0,256r-512,0r0,-256r256,0r0,-256r768,0r0,256r256,0r0,-256r512,0r0,256r-256,0r0,256r-256,0r0,1536r-512,0r0,-1792"},"\u00f6":{"d":"768,-768r512,0r0,256r-512,0r0,-256xm768,-1792r512,0r0,256r-512,0r0,-256xm256,-1280r1536,0r0,256r-1536,0r0,-256"},"\u00fc":{"d":"1024,-2816r512,0r0,256r256,0r0,1280r-512,0r0,-1280r-256,0r0,-256xm512,-2560r-256,0r0,-256r512,0r0,256r256,0r0,1280r-512,0r0,-1280"},"\u00a0":{}}});
/*!
 * The following copyright notice may not be removed under any circumstances.
 * 
 * Copyright:
 * http://www.fatorcaos.com.br
 * 
 * Trademark:
 * http://www.fatorcaos.com.br
 * 
 * Description:
 * http://www.fatorcaos.com.br
 * 
 * Manufacturer:
 * zeh
 * 
 * Designer:
 * http://www.fatorcaos.com.br
 * 
 * Vendor URL:
 * http://www.fatorcaos.com.br
 */
Raphael.registerFont({ "w": 2304, "face": { "font-family": "Perfect DOS VGA 437 Win", "font-weight": 400, "font-stretch": "normal", "units-per-em": "4096", "panose-1": "2 0 0 9 0 0 0 0 0 0", "ascent": "3072", "descent": "-1024", "bbox": "0 -3072 2048 1024", "underline-thickness": "256", "underline-position": "0", "unicode-range": "U+0001-U+20A7" }, "glyphs": { " ": {}, "\t": { "d": "768,-512r512,0r0,-256r256,0r0,-512r-256,0r0,-256r-512,0r0,256r-256,0r0,512r256,0r0,256xm256,-1536r256,0r0,-256r1024,0r0,256r256,0r0,1024r-256,0r0,256r-1024,0r0,-256r-256,0r0,-1024" }, "\n": { "d": "1280,-512r-512,0r0,-256r-256,0r0,-512r256,0r0,-256r512,0r0,256r256,0r0,512r-256,0r0,256xm1536,-256r0,-256r256,0r0,-1024r-256,0r0,-256r-1024,0r0,256r-256,0r0,1024r256,0r0,256r1024,0xm0,-3072r2048,0r0,4096r-2048,0r0,-4096" }, "\r": { "d": "1024,-2048r512,0r0,-256r-512,0r0,256xm1024,-1792r0,1536r-256,0r0,256r-768,0r0,-512r256,0r0,-256r256,0r0,-1792r1536,0r0,768r-1024,0" }, "!": { "d": "768,-512r512,0r0,512r-512,0r0,-512xm512,-2304r256,0r0,-256r512,0r0,256r256,0r0,768r-256,0r0,768r-512,0r0,-768r-256,0r0,-768" }, "\"": { "d": "1536,-1792r-256,0r0,-1024r512,0r0,768r-256,0r0,256xm512,-2048r-256,0r0,-768r512,0r0,1024r-256,0r0,-256" }, "#": { "d": "1024,-768r0,-768r-256,0r0,768r256,0xm256,-2304r512,0r0,512r256,0r0,-512r512,0r0,512r256,0r0,256r-256,0r0,768r256,0r0,256r-256,0r0,512r-512,0r0,-512r-256,0r0,512r-512,0r0,-512r-256,0r0,-256r256,0r0,-768r-256,0r0,-256r256,0r0,-512" }, "$": { "d": "1280,-2304r-768,0r0,768r1024,0r0,256r256,0r0,1024r-256,0r0,256r-256,0r0,512r-512,0r0,-512r-512,0r0,-256r-256,0r0,-512r256,0r0,256r256,0r0,256r768,0r0,-1024r-1024,0r0,-256r-256,0r0,-768r256,0r0,-256r512,0r0,-512r512,0r0,512r256,0r0,256r256,0r0,512r-256,0r0,-256r-256,0r0,-256" }, "%": { "d": "1280,-512r512,0r0,512r-512,0r0,-512xm0,-2048r512,0r0,512r-512,0r0,-512xm1536,-1280r-256,0r0,256r-256,0r0,256r-256,0r0,256r-256,0r0,256r-256,0r0,256r-256,0r0,-512r256,0r0,-256r256,0r0,-256r256,0r0,-256r256,0r0,-256r256,0r0,-256r256,0r0,-256r256,0r0,512r-256,0r0,256" }, "&": { "d": "1024,-2304r-256,0r0,512r256,0r0,-512xm1280,-1280r2,-256r510,0r0,256r-256,0r0,1024r256,0r0,256r-512,0r0,-256r-256,0r0,-768r-256,0r0,-256r-256,0r0,1024r510,0v7,79,0,172,2,256r-768,0r0,-256r-256,0r0,-1024r256,0r0,-256r256,0r0,-256r-256,0r0,-512r256,0r0,-256r768,0r0,256r256,0r0,512r-256,0r0,256r-256,0r0,256r256,0" }, "'": { "d": "256,-2048r256,0r0,-768r512,0r0,768r-256,0r0,256r-512,0r0,-256" }, "(": { "d": "512,-2048r256,0r0,-256r256,0r0,-256r512,0r0,256r-256,0r0,256r-256,0r0,1536r256,0r0,256r256,0r0,256r-512,0r0,-256r-256,0r0,-256r-256,0r0,-1536" }, ")": { "d": "512,-256r256,0r0,-256r256,0r0,-1536r-256,0r0,-256r-256,0r0,-256r512,0r0,256r256,0r0,256r256,0r0,1536r-256,0r0,256r-256,0r0,256r-512,0r0,-256" }, "*": { "d": "256,-1792r512,0r0,256r512,0r0,-256r512,0r0,256r-256,0r0,256r512,0r0,256r-512,0r0,256r256,0r0,256r-512,0r0,-256r-512,0r0,256r-512,0r0,-256r256,0r0,-256r-512,0r0,-256r512,0r0,-256r-256,0r0,-256" }, "+": { "d": "256,-1280r512,0r0,-512r512,0r0,512r512,0r0,256r-512,0r0,512r-512,0r0,-512r-512,0r0,-256" }, ",": { "d": "512,0r256,0r0,-768r512,0r0,768r-256,0r0,256r-512,0r0,-256" }, "-": { "d": "0,-1280r1792,0r0,256r-1792,0r0,-256" }, ".": { "d": "768,-512r512,0r0,512r-512,0r0,-512" }, "\/": { "d": "1536,-1280r-256,0r0,256r-256,0r0,256r-256,0r0,256r-256,0r0,256r-256,0r0,256r-256,0r0,-512r256,0r0,-256r256,0r0,-256r256,0r0,-256r256,0r0,-256r256,0r0,-256r256,0r0,-256r256,0r0,512r-256,0r0,256" }, "0": { "d": "768,-1536r256,0r0,512r-256,0r0,-512xm1024,-512r256,0r0,-1536r-256,0r0,-256r-256,0r0,256r-256,0r0,1536r256,0r0,256r256,0r0,-256xm512,-256r-256,0r0,-256r-256,0r0,-1536r256,0r0,-256r256,0r0,-256r768,0r0,256r256,0r0,256r256,0r0,1536r-256,0r0,256r-256,0r0,256r-768,0r0,-256" }, "A": { "d": "1024,-2048r-256,0r0,256r-256,0r0,512r768,0r0,-512r-256,0r0,-256xm1280,0r0,-1024r-768,0r0,1024r-512,0r0,-1792r256,0r0,-256r256,0r0,-256r256,0r0,-256r256,0r0,256r256,0r0,256r256,0r0,256r256,0r0,1792r-512,0" }, "a": { "d": "1024,0r-768,0r0,-256r-256,0r0,-768r256,0r0,-256r768,0r0,-256r-768,0r0,-256r1024,0r0,256r256,0r0,1280r256,0r0,256r-512,0r0,-256r-256,-2r0,-766r-512,0r0,768r512,0r0,256" }, "b": { "d": "1024,-1536r-256,0r0,1280r512,0r0,-1024r-256,0r0,-256xm768,-1792r512,0r0,256r256,0r0,256r256,0r0,1024r-256,0r0,256r-1280,0r0,-2304r-256,0r0,-256r768,0r0,768" }, "c": { "d": "1280,-1536r-768,0r0,1280r768,0r0,-256r512,0r0,256r-256,0r0,256r-1280,0r0,-256r-256,0r0,-1280r256,0r0,-256r1280,0r0,256r256,0r0,256r-512,0r0,-256" }, "d": { "d": "1024,-1536r-256,0r0,256r-256,0r0,1024r512,2r0,254r-768,0r0,-256r-256,0r0,-1024r256,0r0,-256r256,0r0,-256r512,0r0,-512r-256,0r0,-256r768,0r0,2304r256,0r0,256r-512,0r0,-256r-256,0r0,-1280" }, "e": { "d": "512,-1280r768,0r0,-256r-768,0r0,256xm256,-1792r1280,0r0,256r256,0r0,512r-1280,0r0,768r768,0r0,-256r512,0r0,256r-256,0r0,256r-1280,0r0,-256r-256,0r0,-1280r256,0r0,-256" }, "f": { "d": "256,-1536r256,0r0,-768r256,0r0,-256r768,0r0,256r256,0r0,512r-256,0r0,-256r-256,0r0,-256r-256,0r0,768r256,0r0,256r-256,0r0,1024r256,0r0,256r-1024,0r0,-256r256,0r0,-1024r-256,0r0,-256" }, "g": { "d": "1024,-256r2,-1280r254,0r0,-256r512,0r0,256r-256,0r0,2048r-256,0r0,256r-1024,0r0,-256r-256,0r0,-256r512,0r0,256r512,0r0,-512r-768,0r0,-256r-256,0r0,-1280r256,0r0,-256r768,0r0,256r-512,0r0,1280r512,0" }, "h": { "d": "1024,-1792r512,0r0,256r256,0r0,1536r-512,0r0,-1536r-256,0r0,-256xm768,0r-768,0r0,-256r256,0r0,-2048r-256,0r0,-256r768,0r0,1024r256,0r0,256r-256,0r0,1280" }, "i": { "d": "768,-2560r512,0r0,512r-512,0r0,-512xm512,-1792r768,0r0,1536r256,0r0,256r-1024,0r0,-256r256,0r0,-1280r-256,0r0,-256" }, "j": { "d": "1280,-2560r512,0r0,512r-512,0r0,-512xm1024,-1792r768,0r0,2304r-256,0r0,256r-1024,0r0,-256r-256,0r0,-512r512,0r0,512r512,0r0,-2048r-256,0r0,-256" }, "k": { "d": "1024,-1536r256,0r0,-256r512,0r0,256r-256,0r0,256r-256,0r0,512r256,0r0,256r256,0r0,512r-512,0r0,-512r-256,0r0,-256r-256,0r0,768r-768,0r0,-256r256,0r0,-2048r-256,0r0,-256r768,0r0,1280r256,0r0,-256" }, "l": { "d": "512,-2560r768,0r0,2304r256,0r0,256r-1024,0r0,-256r256,0r0,-2048r-256,0r0,-256" }, "m": { "d": "1280,-1280r-256,0r0,1024r-256,0r0,-1024r-256,0r0,1280r-512,0r0,-1792r768,0r0,256r256,0r0,-256r512,0r0,256r256,0r0,1536r-512,0r0,-1280" }, "n": { "d": "256,-1536r-256,0r0,-256r512,0r0,256r256,0r0,1536r-512,0r0,-1536xm768,-1792r768,0r0,256r256,0r0,1536r-512,0r0,-1536r-512,0r0,-256" }, "o": { "d": "1280,-1536r-768,0r0,1280r768,0r0,-1280xm256,-256r-256,0r0,-1280r256,0r0,-256r1280,0r0,256r256,0r0,1280r-256,0r0,256r-1280,0r0,-256" }, "p": { "d": "768,-1792r768,0r0,256r256,0r0,1280r-256,0r0,256r-768,0r0,512r256,0r0,256r-1024,0r0,-256r256,0r0,-2048r-256,0r0,-256r512,0r0,256r256,2r0,1278r512,0r0,-1280r-512,0r0,-256" }, "q": { "d": "1024,-256r2,-1280r254,0r0,-256r512,0r0,256r-256,0r0,2048r256,0r0,256r-1024,0r0,-256r256,0r0,-512r-768,0r0,-256r-256,0r0,-1280r256,0r0,-256r768,0r0,256r-512,0r0,1280r512,0" }, "r": { "d": "1024,-1280r-256,0r0,1024r256,0r0,256r-1024,0r0,-256r256,0r0,-1280r-256,0r0,-256r512,0r0,256r256,0r0,-256r768,0r0,256r256,0r0,512r-512,0r0,-512r-256,0r0,256" }, "s": { "d": "1280,-1536r-768,0r0,256r256,0r0,256r512,0r0,256r256,0r0,256r256,0r0,256r-256,0r0,256r-1280,0r0,-256r-256,0r0,-256r512,0r0,256r768,0r0,-256r-256,0r0,-256r-512,0r0,-256r-256,0r0,-256r-256,0r0,-256r256,0r0,-256r1280,0r0,256r256,0r0,256r-512,0r0,-256" }, "t": { "d": "0,-1792r512,0r0,-512r256,0r0,-256r256,0r0,768r512,0r0,256r-512,0r0,1280r256,0r0,-256r512,0r0,256r-256,0r0,256r-768,0r0,-256r-256,0r0,-1280r-512,0r0,-256" }, "u": { "d": "1024,-1792r512,0r0,1536r256,0r0,256r-512,0r0,-256r-256,0r0,-1536xm0,-1792r512,0r0,1536r512,0r0,256r-768,0r0,-256r-256,0r0,-1536" }, "v": { "d": "1280,-1792r512,0r0,1280r-256,0r0,256r-256,0r0,256r-768,0r0,-256r-256,0r0,-256r-256,0r0,-1280r512,0r0,1280r256,0r0,256r256,0r0,-256r256,0r0,-1280" }, "w": { "d": "1536,0r-512,0r0,-256r-256,0r0,256r-512,0r0,-256r-256,0r0,-1536r512,0r0,1280r256,0r0,-768r256,0r0,768r256,0r0,-1280r512,0r0,1536r-256,0r0,256" }, "x": { "d": "0,-1792r512,0r0,256r256,0r0,256r256,0r0,-256r256,0r0,-256r512,0r0,256r-256,0r0,256r-256,0r0,768r256,0r0,256r256,0r0,256r-512,0r0,-256r-256,0r0,-256r-256,0r0,256r-256,0r0,256r-512,0r0,-256r256,0r0,-256r256,0r0,-768r-256,0r0,-256r-256,0r0,-256" }, "y": { "d": "0,512r1024,0r0,-256r256,0r0,-256r-1024,0r0,-256r-256,0r0,-1536r512,0r0,1536r768,0r0,-1536r512,0r0,2048r-256,0r0,256r-256,0r0,256r-1280,0r0,-256" }, "z": { "d": "0,-1792r1792,0r0,256r-256,0r0,256r-256,0r0,256r-256,0r0,256r-256,0r0,256r-256,0r0,256r768,0r0,-256r512,0r0,512r-1792,0r0,-512r256,0r0,-256r256,0r0,-256r256,0r0,-256r256,0r0,-256r-512,0r0,256r-512,0r0,-512" }, "{": { "d": "1024,-2560r768,0r0,256r-512,0r0,768r-256,0r0,256r256,0r0,1024r512,0r0,256r-768,0r0,-256r-256,0r0,-1024r-512,0r0,-256r512,0r0,-768r256,0r0,-256" }, "B": { "d": "768,-1536r512,0r0,-768r-512,0r0,768xm1280,-1280r-512,0r0,1024r512,0r0,-1024xm0,-256r256,0r0,-2048r-256,0r0,-256r1536,0r0,256r256,0r0,768r-256,0r0,256r256,0r0,1024r-256,0r0,256r-1536,0r0,-256" }, "C": { "d": "1280,-2304r-512,0r0,256r-256,0r0,1536r256,0r0,256r512,0r0,-256r256,0r0,-256r256,0r0,512r-256,0r0,256r-1024,0r0,-256r-256,0r0,-256r-256,0r0,-1536r256,0r0,-256r256,0r0,-256r1024,0r0,256r256,0r0,512r-256,0r0,-256r-256,0r0,-256" }, "D": { "d": "1280,-2048r-256,0r0,-256r-256,0r0,2048r256,0r0,-256r256,0r0,-1536xm1280,-256r0,256r-1280,0r0,-256r256,0r0,-2048r-256,0r0,-256r1280,0r0,256r256,0r0,256r256,0r0,1536r-256,0r0,256r-256,0" }, "E": { "d": "1024,-1280r-256,0r0,1024r512,0r0,-256r256,0r0,-256r256,0r0,768r-1792,0r0,-256r256,0r0,-2048r-256,0r0,-256r1792,0r0,768r-256,0r0,-256r-256,0r0,-256r-512,0r0,768r256,0r0,-256r256,0r0,768r-256,0r0,-256" }, "F": { "d": "1536,-2048r-256,0r0,-256r-512,0r0,768r256,0r0,-256r256,0r0,768r-256,0r0,-256r-256,0r0,1024r256,0r0,256r-1024,0r0,-256r256,0r0,-2048r-256,0r0,-256r1792,0r0,768r-256,0r0,-256" }, "G": { "d": "768,-1280r1024,0r0,1280r-256,0r0,-256r-256,0r0,-768r-512,0r0,-256xm1280,-2304r-512,0r0,256r-256,0r0,1536r256,0r0,256r512,0r0,256r-768,0r0,-256r-256,0r0,-256r-256,0r0,-1536r256,0r0,-256r256,0r0,-256r1024,0r0,256r256,0r0,512r-256,0r0,-256r-256,0r0,-256" }, "H": { "d": "1280,-1280r-768,0r0,1280r-512,0r0,-2560r512,0r0,1024r768,0r0,-1024r512,0r0,2560r-512,0r0,-1280" }, "I": { "d": "512,-2560r1024,0r0,256r-256,0r0,2048r256,0r0,256r-1024,0r0,-256r256,0r0,-2048r-256,0r0,-256" }, "J": { "d": "768,-2560r1024,0r0,256r-256,0r0,2048r-256,0r0,256r-1024,0r0,-256r-256,0r0,-768r512,0r0,768r512,0r0,-2048r-256,0r0,-256" }, "K": { "d": "1536,-1536r-256,0r0,512r256,0r0,256r256,0r0,768r-512,0r0,-768r-256,0r0,-256r-256,0r0,1024r-768,0r0,-256r256,0r0,-2048r-256,0r0,-256r768,0r0,1024r256,0r0,-256r256,0r0,-768r512,0r0,768r-256,0r0,256" }, "L": { "d": "768,-256r512,0r0,-256r256,0r0,-256r256,0r0,768r-1792,0r0,-256r256,0r0,-2048r-256,0r0,-256r1024,0r0,256r-256,0r0,2048" }, "M": { "d": "1024,-1280r-256,0r0,-256r-256,0r0,1536r-512,0r0,-2560r512,0r0,256r256,0r0,256r256,0r0,-256r256,0r0,-256r512,0r0,2560r-512,0r0,-1536r-256,0r0,256" }, "N": { "d": "1024,-1280r-256,0r0,-256r-256,0r0,1536r-512,0r0,-2560r512,0r0,256r256,0r0,256r256,0r0,256r256,0r0,-768r512,0r0,2560r-512,0r0,-1024r-256,0r0,-256" }, "O": { "d": "1280,-2304r-768,0r0,2048r768,0r0,-2048xm0,-2304r256,0r0,-256r1280,0r0,256r256,0r0,2048r-256,0r0,256r-1280,0r0,-256r-256,0r0,-2048" }, "P": { "d": "1280,-2304r-512,0r0,768r512,0r0,-768xm768,-256r256,0r0,256r-1024,0r0,-256r256,0r0,-2048r-256,0r0,-256r1536,0r0,256r256,0r0,768r-256,0r0,256r-768,0r0,1024" }, "Q": { "d": "1024,-512r256,0r0,-1792r-768,0r0,2048r256,0r0,-512r256,0r0,256xm1024,0r-768,0r0,-256r-256,0r0,-2048r256,0r0,-256r1280,0r0,256r256,0r0,2048r-256,0r0,512r256,0r0,256r-768,0r0,-512" }, "R": { "d": "1280,-2304r-512,0r0,768r512,0r0,-768xm1280,-1024r-256,0r0,-256r-256,0r0,1280r-768,0r0,-256r256,0r0,-2048r-256,0r0,-256r1536,0r0,256r256,0r0,768r-256,0r0,512r256,0r0,1024r-512,0r0,-1024" }, "S": { "d": "0,-768r512,0r0,512r768,0r0,-768r-256,0r0,-256r-512,0r0,-256r-256,0r0,-256r-256,0r0,-512r256,0r0,-256r1280,0r0,256r256,0r0,512r-512,0r0,-512r-768,0r0,512r256,0r0,256r512,0r0,256r256,0r0,256r256,0r0,768r-256,0r0,256r-1280,0r0,-256r-256,0r0,-512" }, "T": { "d": "512,-256r256,0r0,-1792r-256,0r0,256r-256,0r0,-768r1536,0r0,768r-256,0r0,-256r-256,0r0,1792r256,0r0,256r-1024,0r0,-256" }, "U": { "d": "0,-2560r512,0r0,2304r768,0r0,-2304r512,0r0,2304r-256,0r0,256r-1280,0r0,-256r-256,0r0,-2304" }, "V": { "d": "768,-256r-256,0r0,-256r-256,0r0,-256r-256,0r0,-1792r512,0r0,1792r256,0r0,256r256,0r0,-256r256,0r0,-1792r512,0r0,1792r-256,0r0,256r-256,0r0,256r-256,0r0,256r-256,0r0,-256" }, "W": { "d": "768,0r-512,0r0,-256r-256,0r0,-2304r512,0r0,1792r256,0r0,-768r256,0r0,768r256,0r0,-1792r512,0r0,2304r-256,0r0,256r-512,0r0,-512r-256,0r0,512" }, "X": { "d": "512,-1536r-256,0r0,-512r-256,0r0,-512r512,0r0,512r256,0r0,256r256,0r0,-256r256,0r0,-512r512,0r0,512r-256,0r0,512r-256,0r0,512r256,0r0,512r256,0r0,512r-512,0r0,-512r-256,0r0,-256r-256,0r0,256r-256,0r0,512r-512,0r0,-512r256,0r0,-512r256,0r0,-512" }, "Y": { "d": "512,-256r256,0r0,-1024r-256,0r0,-256r-256,0r0,-1024r512,0r0,1024r512,0r0,-1024r512,0r0,1024r-256,0r0,256r-256,0r0,1024r256,0r0,256r-1024,0r0,-256" }, "Z": { "d": "0,-768r256,0r0,-256r256,0r0,-256r256,0r0,-256r256,0r0,-256r256,0r0,-512r-768,0r0,256r-256,0r0,256r-256,0r0,-768r1792,0r0,768r-256,0r0,256r-256,0r0,256r-256,0r0,256r-256,0r0,256r-256,0r0,512r768,0r0,-256r256,0r0,-256r256,0r0,768r-1792,0r0,-768" }, "[": { "d": "1024,-256r512,0r0,256r-1024,0r0,-2560r1024,0r0,256r-512,0r0,2048" }, "1": { "d": "256,-2048r256,0r0,-256r256,0r0,-256r512,0r0,2304r512,0r0,256r-1536,0r0,-256r512,0r0,-1536r-512,0r0,-256" }, "2": { "d": "0,-768r256,0r0,-256r256,0r0,-256r256,0r0,-256r256,0r0,-256r256,0r0,-512r-768,0r0,256r-512,0r0,-256r256,0r0,-256r1280,0r0,256r256,0r0,512r-256,0r0,256r-256,0r0,256r-256,0r0,256r-256,0r0,256r-256,0r0,512r768,0r0,-256r512,0r0,512r-1792,0r0,-768" }, "3": { "d": "512,-1536r768,0r0,-768r-768,0r0,256r-512,0r0,-256r256,0r0,-256r1280,0r0,256r256,0r0,768r-256,0r0,256r256,0r0,1024r-256,0r0,256r-1280,0r0,-256r-256,0r0,-256r512,0r0,256r768,0r0,-1024r-768,0r0,-256" }, "4": { "d": "512,-1280r512,0r0,-512r-256,0r0,256r-256,0r0,256xm1792,-1280r0,256r-256,0r0,768r256,0r0,256r-1024,0r0,-256r256,0r0,-768r-1024,0r0,-512r256,0r0,-256r256,0r0,-256r256,0r0,-256r256,0r0,-256r512,0r0,1280r256,0" }, "5": { "d": "512,-1536r1024,0r0,256r256,0r0,1024r-256,0r0,256r-1280,0r0,-256r-256,0r0,-256r512,0r0,256r768,0r0,-1024r-1280,0r0,-1280r1792,0r0,256r-1280,0r0,768" }, "6": { "d": "1280,-1280r-768,0r0,1024r768,0r0,-1024xm256,-2304r256,0r0,-256r768,0r0,256r-512,0r0,256r-256,0r0,512r1024,0r0,256r256,0r0,1024r-256,0r0,256r-1280,0r0,-256r-256,0r0,-1792r256,0r0,-256" }, "7": { "d": "512,-1024r256,0r0,-256r256,0r0,-256r256,0r0,-768r-768,0r0,256r-512,0r0,-512r1792,0r0,1024r-256,0r0,256r-256,0r0,256r-256,0r0,1024r-512,0r0,-1024" }, "8": { "d": "1280,-2304r-768,0r0,768r768,0r0,-768xm1280,-1280r-768,0r0,1024r768,0r0,-1024xm0,-1280r256,0r0,-256r-256,0r0,-768r256,0r0,-256r1280,0r0,256r256,0r0,768r-256,0r0,256r256,0r0,1024r-256,0r0,256r-1280,0r0,-256r-256,0r0,-1024" }, "9": { "d": "256,-256r1024,0r0,256r-1024,0r0,-256xm512,-1536r768,0r0,-768r-768,0r0,768xm1024,-512r256,0r0,-768r-1024,0r0,-256r-256,0r0,-768r256,0r0,-256r1280,0r0,256r256,0r0,1792r-256,0r0,256r-512,0r0,-256" }, ":": { "d": "768,-768r512,0r0,512r-512,0r0,-512xm768,-2048r512,0r0,512r-512,0r0,-512" }, ";": { "d": "768,-2048r512,0r0,512r-512,0r0,-512xm768,-768r512,0r0,512r-256,0r0,256r-512,0r0,-256r256,0r0,-512" }, "<": { "d": "1280,-2304r512,0r0,256r-256,0r0,256r-256,0r0,256r-256,0r0,256r-256,0r0,256r256,0r0,256r256,0r0,256r256,0r0,256r256,0r0,256r-512,0r0,-256r-256,0r0,-256r-256,0r0,-256r-256,0r0,-256r-256,0r0,-256r256,0r0,-256r256,0r0,-256r256,0r0,-256r256,0r0,-256" }, "=": { "d": "256,-1792r1536,0r0,256r-1536,0r0,-256xm256,-1024r1536,0r0,256r-1536,0r0,-256" }, ">": { "d": "256,-2304r512,0r0,256r256,0r0,256r256,0r0,256r256,0r0,256r256,0r0,256r-256,0r0,256r-256,0r0,256r-256,0r0,256r-256,0r0,256r-512,0r0,-256r256,0r0,-256r256,0r0,-256r256,0r0,-256r256,0r0,-256r-256,0r0,-256r-256,0r0,-256r-256,0r0,-256r-256,0r0,-256" }, "?": { "d": "768,-512r512,0r0,512r-512,0r0,-512xm768,-1536r256,0r0,-256r256,0r0,-512r-768,0r0,512r-512,0r0,-512r256,0r0,-256r1280,0r0,256r256,0r0,512r-256,0r0,256r-256,0r0,768r-512,0r0,-768" }, "@": { "d": "768,-1536r512,0r0,-512r-768,0r0,1792r1024,0r0,256r-1280,0r0,-256r-256,0r0,-1792r256,0r0,-256r1280,0r0,256r256,0r0,1280r-256,0r0,256r-768,0r0,-1024" }, "\\": { "d": "1536,-256r-256,0r0,-256r-256,0r0,-256r-256,0r0,-256r-256,0r0,-256r-256,0r0,-256r-256,0r0,-768r256,0r0,256r256,0r0,256r256,0r0,256r256,0r0,256r256,0r0,256r256,0r0,256r256,0r0,768r-256,0r0,-256" }, "]": { "d": "512,-256r512,0r0,-2048r-512,0r0,-256r1024,0r0,2560r-1024,0r0,-256" }, "^": { "d": "1024,-2560r-256,0r0,256r-256,0r0,256r-512,0r0,-256r256,0r0,-256r256,0r0,-256r256,0r0,-256r256,0r0,256r256,0r0,256r256,0r0,256r256,0r0,256r-512,0r0,-256r-256,0r0,-256" }, "_": { "d": "0,256r2048,0r0,256r-2048,0r0,-256" }, "|": { "d": "768,-2560r512,0r0,2560r-512,0r0,-2560" }, "~": { "d": "1280,-2816r512,0r0,256r-256,0r0,256r-768,0r0,-256r-256,0r0,256r-512,0r0,-256r256,0r0,-256r768,0r0,256r256,0r0,-256" }, "}": { "d": "256,-256r512,0r0,-1024r256,0r0,-256r-256,0r0,-768r-512,0r0,-256r768,0r0,256r256,0r0,768r512,0r0,256r-512,0r0,1024r-256,0r0,256r-768,0r0,-256" }, "`": { "d": "1024,-2304r-256,0r0,-256r-256,0r0,-256r512,0r0,256r256,0r0,256r256,0r0,256r-512,0r0,-256" }, "\u00c7": { "d": "256,256r512,0r0,-256r-256,0r0,-256r-256,0r0,-256r-256,0r0,-1536r256,0r0,-256r256,0r0,-256r1024,0r0,256r256,0r0,512r-256,0r0,-256r-256,0r0,-256r-512,0r0,256r-256,0r0,1536r256,0r0,256r512,0r0,-256r256,0r0,-256r256,0r0,512r-256,0r0,256r-256,0r0,256r-256,0r0,256r-768,0r0,-256" }, "\u00fc": { "d": "1024,-2560r512,0r0,256r-512,0r0,-256xm0,-2560r512,0r0,256r-512,0r0,-256xm1024,-1792r512,0r0,1536r256,0r0,256r-512,0r0,-256r-256,0r0,-1536xm0,-1792r512,0r0,1536r512,0r0,256r-768,0r0,-256r-256,0r0,-1536" }, "\u00e7": { "d": "256,256r512,0r0,-256r-512,0r0,-256r-256,0r0,-1280r256,0r0,-256r1280,0r0,256r256,0r0,256r-512,0r0,-256r-768,0r0,1280r768,0r0,-256r512,0r0,256r-256,0r0,256r-256,0r0,256r-256,0r0,256r-768,0r0,-256" }, "\u00f6": { "d": "1280,-2560r512,0r0,256r-512,0r0,-256xm0,-2560r512,0r0,256r-512,0r0,-256xm1280,-1536r-768,0r0,1280r768,0r0,-1280xm256,-256r-256,0r0,-1280r256,0r0,-256r1280,0r0,256r256,0r0,1280r-256,0r0,256r-1280,0r0,-256" }, "\u00d6": { "d": "1280,-2816r512,0r0,256r-512,0r0,-256xm0,-2816r512,0r0,256r-512,0r0,-256xm1280,-2048r-768,0r0,1792r768,0r0,-1792xm0,-2048r256,0r0,-256r1280,0r0,256r256,0r0,1792r-256,0r0,256r-1280,0r0,-256r-256,0r0,-1792" }, "\u00dc": { "d": "0,-2816r512,0r0,256r-512,0r0,-256xm1280,-2816r512,0r0,256r-512,0r0,-256xm0,-2304r512,0r0,2048r768,0r0,-2048r512,0r0,2048r-256,0r0,256r-1280,0r0,-256r-256,0r0,-2048" }, "\u20a7": { "d": "1024,-2560r-512,0r0,512r512,0r0,-512xm768,-1280r256,0r0,-256r256,0r0,-256r-768,0r0,1792r-512,0r0,-2816r1280,0r0,256r256,0r0,512r-256,0r0,256r256,0r0,512r256,0r0,256r-256,0r0,768r256,0r0,256r-512,0r0,-256r-256,0r0,-768r-256,0r0,-256" }, "\u00a0": {}} });
